//Numpy array shape [29, 20]
//Min -5.229981422424
//Max 4.147540569305
//Number of zeros 0

#ifndef W3_H_
#define W3_H_

#ifdef LOAD_WEIGHTS_FROM_TXT
dense_weight_t w3[580];
#else
dense_weight_t w3[580] = {-0.112601958215237, -0.082022473216057, 0.568254053592682, 0.025114454329014, 0.230065792798996, -0.062035273760557, 0.225439637899399, 0.093778498470783, 0.156669139862061, 0.281553953886032, -0.125560268759727, 0.221710458397865, 0.276917189359665, 0.102268509566784, 0.081421464681625, 0.194586053490639, -0.178557828068733, 0.248161107301712, 0.175899118185043, -0.290861338376999, 0.218870088458061, -0.089900866150856, 0.490898847579956, -0.016677763313055, 0.281932532787323, -0.065457157790661, 0.453324258327484, 0.148655250668526, 0.142284929752350, 0.231576412916183, -0.072471454739571, 0.470825612545013, -0.324449956417084, 0.352417379617691, 0.357665538787842, 0.146927475929260, -0.114974178373814, 0.241448059678078, 0.238098427653313, 0.304509162902832, 0.180779322981834, -0.193514347076416, -0.355928540229797, 0.020341055467725, 0.083647355437279, 0.287770271301270, -0.116134107112885, 0.057795152068138, -0.177643865346909, -0.925018489360809, -0.340925633907318, -0.466426074504852, 0.064800754189491, -0.667629718780518, 0.318564832210541, -0.853717923164368, 0.550732433795929, 0.076251529157162, -0.092983677983284, -0.036581810563803, -0.357495963573456, -0.003327943151817, -0.129777058959007, -0.043554343283176, 0.001633391832002, 0.437707871198654, -0.014337201602757, -0.027897568419576, -0.175105944275856, -0.213299140334129, 0.148246735334396, 0.244066238403320, -0.552006840705872, 0.286883443593979, 0.012193912640214, -0.190811276435852, 2.021301269531250, 0.177664950489998, 0.009273341856897, -0.136263892054558, 0.201007127761841, -0.077753275632858, -0.388101667165756, 0.026518983766437, -0.183127298951149, -0.037333067506552, -0.088168233633041, -0.072641834616661, 0.182958483695984, 1.068776130676270, 0.144961670041084, -0.154338762164116, -0.211299732327461, -0.177167385816574, -0.086443856358528, 0.036031521856785, -0.883649468421936, -0.139395043253899, -0.002637437311932, -0.479627490043640, 0.007255726959556, -0.384221374988556, -0.490921288728714, -0.013832750730217, -0.307669341564178, -0.376365691423416, -0.342657119035721, -0.142171829938889, -0.037320144474506, -0.339745789766312, 0.051321774721146, -0.444223403930664, 0.217936992645264, 0.246612876653671, -0.038869801908731, -0.258582651615143, -0.477017134428024, 0.187183901667595, 0.044418398290873, -0.031191566959023, -0.087743319571018, -0.024118188768625, -0.019895482808352, -0.038395524024963, 0.306156754493713, -0.026438144966960, -0.271112531423569, 0.029188957065344, 0.021206909790635, 0.005509273149073, 0.005322602111846, -0.063353836536407, -0.005274970550090, 0.057468287646770, 0.008449944667518, -0.041390549391508, -0.046384315937757, -0.025077497586608, 0.012904522009194, 0.086870357394218, 0.046334326267242, -0.039999719709158, -0.042821925133467, 0.042149715125561, 0.262533932924271, 0.030468149110675, -0.308860898017883, -0.054252717643976, -0.026620615273714, -0.027617774903774, 0.000477441411931, -0.034414116293192, 0.031214945018291, -0.053362917155027, -0.058340732008219, -0.181919082999229, -0.038781825453043, 0.011842411011457, -0.009985295124352, -0.094862133264542, 0.050925098359585, 0.016595587134361, 0.052094459533691, -0.018916508182883, 0.232402965426445, -0.017153855413198, -0.317212760448456, 0.023862399160862, -0.006244434975088, -0.018881296738982, 0.035515550523996, 0.072701193392277, -0.030880799517035, 0.158218815922737, -0.035845164209604, 0.137610539793968, 0.181205287575722, -0.013837050646544, -0.016751628369093, -0.025345312431455, -0.112827777862549, 0.009797222912312, -0.197270408272743, -0.023628266528249, -0.321099847555161, -0.058829050511122, -0.003980825655162, -0.151220694184303, 0.062365978956223, 0.143582507967949, -0.089034304022789, 0.052659291774035, -0.058611422777176, 0.094637908041477, -0.023251142352819, -0.006578383967280, -0.036780558526516, -0.118559211492538, 0.009631050750613, -0.015622254461050, 0.016303457319736, -0.009596453048289, 0.134664922952652, -0.025147393345833, 0.372722446918488, 0.090362131595612, -0.146835952997208, 0.138825729489326, -0.009030142799020, -0.030295254662633, 0.005665044300258, -0.006563385948539, 0.062444705516100, -0.218704611063004, 0.099124602973461, 0.081641145050526, -0.045910056680441, 0.114063844084740, 0.015774244442582, 0.037377476692200, -0.013127435930073, -0.019730787724257, -0.042324952781200, 0.031540278345346, 0.291669696569443, -0.022639088332653, -0.389905989170074, -0.019070791080594, -0.007004373706877, -0.010574686340988, 0.020398598164320, -0.012313806451857, 0.000366265798220, 0.006737288553268, -0.016584647819400, -0.054943680763245, -0.024855703115463, -0.015910815447569, -0.009744438342750, -0.023410934954882, 0.192199006676674, -0.052441474050283, -0.148671820759773, 0.078558743000031, -0.043173298239708, 0.166762068867683, 0.052276846021414, 0.231143787503242, 0.052480671554804, 0.278625428676605, -0.101254947483540, -0.047022540122271, -0.025767041370273, 0.156744629144669, -0.039596550166607, -0.104193985462189, 0.229612275958061, -0.277816563844681, 0.019122565165162, -0.139902263879776, 0.074099667370319, -0.053750365972519, -0.333060503005981, 0.021440776064992, -0.227274239063263, -0.242071792483330, -0.190201550722122, -0.185002818703651, -0.005221079103649, -0.045966673642397, -0.077750355005264, -0.227555081248283, 0.140001177787781, 0.174262017011642, -0.122379124164581, -0.188024878501892, 0.024482991546392, -0.123306043446064, -0.166086256504059, -0.059926681220531, 0.062679722905159, -0.011421834118664, 0.223515138030052, 0.145979613065720, 0.221656769514084, 0.233958229422569, 0.098564118146896, 0.146339833736420, -0.012693722732365, -0.044202793389559, 0.024219784885645, 0.031516149640083, -0.037781920284033, -0.022487381473184, 0.033619422465563, 0.179309949278831, -0.158430144190788, 0.079021975398064, 0.060160186141729, 0.188427552580833, -0.065074145793915, 0.172800719738007, 0.227191045880318, 0.122515514492989, -0.002210799837485, 0.158381730318069, 0.097430437803268, 0.153369680047035, 0.032754488289356, 0.026672750711441, -0.278266638517380, -0.222333610057831, 0.405807763338089, 0.219616308808327, -0.208057582378387, 0.143031924962997, -0.502617895603180, 0.115678474307060, -0.017744360491633, 0.001569134416059, -0.181224986910820, 0.022792091593146, 0.162468746304512, -0.105548352003098, 0.032408598810434, 0.066363751888275, 0.136286973953247, -0.002020163927227, -0.187483459711075, 0.128987431526184, 0.139218136668205, 0.225529134273529, 0.118663951754570, -0.317159503698349, 0.209522932767868, -0.047724571079016, 0.388993948698044, -0.215379998087883, 0.018835185095668, -0.329773038625717, 0.077215589582920, -0.071567900478840, -0.320286631584167, -0.021330129355192, -0.179313540458679, -0.314764678478241, -0.149577289819717, -0.079098589718342, 0.079028196632862, -0.055261798202991, -0.150139734148979, -0.193374603986740, 0.030713032931089, 0.311387181282043, -0.198886469006538, -0.277166634798050, -0.050379551947117, -0.045623056590557, -0.064092740416527, -0.095913209021091, -0.000217938810238, -0.008192240260541, -0.009021056815982, 0.260316729545593, -0.068375535309315, 0.217392683029175, 0.021055787801743, 0.040379192680120, -0.199720159173012, 0.059508815407753, -0.521964907646179, 0.215583041310310, 0.247571781277657, -0.222919747233391, -0.371892720460892, 0.169826164841652, -0.027663951739669, -0.070024721324444, 0.067900121212006, -0.257309049367905, -0.027855398133397, -0.031346496194601, -0.191632315516472, -0.003486744360998, -0.105779215693474, -0.062154203653336, -0.204134404659271, -0.089559406042099, 0.167671918869019, -0.022828241810203, -0.130910843610764, -0.131227254867554, -0.504069626331329, 0.111564174294472, -0.342231035232544, 0.180198490619659, -0.098718196153641, -0.359659552574158, 0.023500360548496, 0.457975476980209, 0.197876557707787, -0.047475516796112, -0.002721621887758, 0.237756505608559, 0.093413807451725, 0.092705100774765, 0.040964554995298, 0.125438749790192, -0.061603456735611, 0.030526926741004, -0.116662822663784, 0.101360768079758, -0.001297403709032, -0.056112486869097, -0.146127238869667, 0.124863989651203, -0.043308425694704, 0.104832962155342, 0.084550365805626, 0.110001586377621, 0.113234363496304, 0.071457870304585, -0.171906113624573, 0.199285998940468, -0.063509799540043, 0.006360989063978, 0.017772676423192, 0.054795730859041, -0.008882327936590, 0.053383708000183, -0.747915744781494, -0.059328902512789, 0.600781202316284, 0.201310351490974, -0.602994859218597, 0.008974554948509, -0.149026438593864, -0.004492297768593, -0.195880159735680, -0.358571618795395, 0.080176964402199, -0.078716933727264, -0.093112677335739, 0.154441386461258, -0.013382559642196, 0.217462360858917, 0.068904750049114, 0.119397036731243, -0.165584594011307, 0.164572313427925, 0.107477985322475, 0.003443087218329, 0.122924849390984, -0.053689103573561, 0.088446721434593, 0.014516699127853, -0.059237677603960, 0.021242963150144, 0.095817528665066, 0.032746061682701, 0.060025818645954, -0.100179217755795, -0.371690392494202, 0.110437482595444, -0.138565853238106, -0.184162870049477, -0.145481303334236, -0.010720729827881, -0.021880799904466, -0.010617880150676, -0.317340224981308, 0.030449388548732, 0.043358270078897, 0.105255760252476, -0.320528566837311, 0.024288127198815, 0.158095732331276, -0.073821723461151, 0.050856817513704, -0.075228087604046, 0.425793468952179, -0.153606012463570, -0.384334415197372, 0.101869419217110, -0.078692793846130, -0.159162610769272, -0.082003012299538, 0.146777376532555, 0.011983335018158, 0.046167172491550, -0.071915693581104, 0.037826582789421, -0.083384849131107, 0.015530918724835, -0.071095429360867, 0.024789525195956, 0.054572571069002, 0.496708899736404, -0.026357823982835, 0.013010374270380, -0.035799600183964, -0.110400073230267, -0.375614494085312, 0.226136863231659, -0.239312455058098, 0.015139961615205, -0.146705240011215, 0.082600139081478, -0.090270951390266, 0.132087022066116, 0.013729813508689, -0.099696688354015, 0.124600782990456, -0.005894649308175, -0.056823857128620, 0.105518236756325, 0.361814200878143, -0.173441424965858, -0.151209861040115, 0.468662291765213, -0.083001896739006, 0.145964980125427, 0.267761409282684, -0.136697828769684, 0.198771312832832, 0.318524897098541, 0.239385738968849, 0.029651897028089, 0.230722650885582, 0.169438138604164, -0.124684937298298, 0.069801107048988, -0.261726915836334, 0.058783117681742, -0.075772397220135, -0.166237190365791, -0.077495217323303, -0.094292476773262, -0.073417805135250, -0.118100740015507, 0.022384684532881, 0.114893741905689, 0.287282586097717, 0.144113093614578, 0.099704094231129, 0.410974770784378, 0.124922521412373, 0.109730765223503, -0.147274121642113, 0.104878589510918, 0.019269805401564, 0.219420969486237, -0.155590400099754, -0.233144640922546, 0.065920852124691, 0.089317932724953, -0.259023427963257, -0.017698731273413, 0.020627263933420, 0.062253955751657, -0.481551676988602, 0.040344893932343, 0.209891542792320, 0.242676421999931, 0.016454163938761, 0.302136033773422, 0.017392834648490, -0.199217274785042, 0.048588309437037, 0.094802670180798, 0.391903370618820, -0.409577727317810, 0.138865903019905, 0.311751008033752, 0.224174425005913, -0.429919958114624, 0.019925322383642, -0.151840820908546, -0.589959681034088, -0.046587571501732};
#endif

#endif
